<?xml version="1.0"?>
<opencv_storage>
<cascade>
  <stageType>BOOST</stageType>
  <featureType>HAAR</featureType>
  <height>24</height>
  <width>24</width>
  <stageParams>
    <boostType>GAB</boostType>
    <minHitRate>9.9500000476837158e-01</minHitRate>
    <maxFalseAlarm>5.0000000000000000e-01</maxFalseAlarm>
    <weightTrimRate>9.4999998807907104e-01</weightTrimRate>
    <maxDepth>1</maxDepth>
    <maxWeakCount>100</maxWeakCount></stageParams>
  <featureParams>
    <maxCatCount>0</maxCatCount>
    <featSize>1</featSize>
    <mode>BASIC</mode></featureParams>
  <stageNum>11</stageNum>
  <stages>
    <!-- stage 0 -->
    <_>
      <maxWeakCount>2</maxWeakCount>
      <stageThreshold>-2.1657142043113708e-01</stageThreshold>
      <weakClassifiers>
        <_>
          <internalNodes>
            0 -1 10 1.8212497234344482e-01</internalNodes>
          <leafValues>
            -9.5209580659866333e-01 9.5833331346511841e-01</leafValues></_>
        <_>
          <internalNodes>
            0 -1 12 -5.2714750170707703e-02</internalNodes>
          <leafValues>
            7.3552441596984863e-01 -9.8756778240203857e-01</leafValues></_></weakClassifiers></_>
    <!-- stage 1 -->
    <_>
      <maxWeakCount>2</maxWeakCount>
      <stageThreshold>-2.3017701506614685e-01</stageThreshold>
      <weakClassifiers>
        <_>
          <internalNodes>
            0 -1 8 -4.2539633810520172e-02</internalNodes>
          <leafValues>
            6.9999998807907104e-01 -9.7515529394149780e-01</leafValues></_>
        <_>
          <internalNodes>
            0 -1 22 -6.1565168201923370e-02</internalNodes>
          <leafValues>
            7.4497824907302856e-01 -9.2828708887100220e-01</leafValues></_></weakClassifiers></_>
    <!-- stage 2 -->
    <_>
      <maxWeakCount>2</maxWeakCount>
      <stageThreshold>-5.2787822484970093e-01</stageThreshold>
      <weakClassifiers>
        <_>
          <internalNodes>
            0 -1 20 8.9923478662967682e-02</internalNodes>
          <leafValues>
            -9.5166164636611938e-01 8.4313726425170898e-01</leafValues></_>
        <_>
          <internalNodes>
            0 -1 26 5.0414599478244781e-02</internalNodes>
          <leafValues>
            -9.8549056053161621e-01 4.2378342151641846e-01</leafValues></_></weakClassifiers></_>
    <!-- stage 3 -->
    <_>
      <maxWeakCount>3</maxWeakCount>
      <stageThreshold>-1.3222320079803467e+00</stageThreshold>
      <weakClassifiers>
        <_>
          <internalNodes>
            0 -1 15 -3.7573024630546570e-02</internalNodes>
          <leafValues>
            6.8000000715255737e-01 -9.2168676853179932e-01</leafValues></_>
        <_>
          <internalNodes>
            0 -1 4 1.8825670704245567e-02</internalNodes>
          <leafValues>
            -9.0906339883804321e-01 5.0170707702636719e-01</leafValues></_>
        <_>
          <internalNodes>
            0 -1 14 4.8538058996200562e-02</internalNodes>
          <leafValues>
            -9.0225225687026978e-01 5.6405216455459595e-01</leafValues></_></weakClassifiers></_>
    <!-- stage 4 -->
    <_>
      <maxWeakCount>3</maxWeakCount>
      <stageThreshold>-1.2184115648269653e+00</stageThreshold>
      <weakClassifiers>
        <_>
          <internalNodes>
            0 -1 16 1.4839610457420349e-01</internalNodes>
          <leafValues>
            -8.8985508680343628e-01 9.4594591856002808e-01</leafValues></_>
        <_>
          <internalNodes>
            0 -1 19 1.2130216695368290e-02</internalNodes>
          <leafValues>
            -8.4754109382629395e-01 6.9245278835296631e-01</leafValues></_>
        <_>
          <internalNodes>
            0 -1 11 -1.3119515776634216e-01</internalNodes>
          <leafValues>
            5.1898467540740967e-01 -8.7026804685592651e-01</leafValues></_></weakClassifiers></_>
    <!-- stage 5 -->
    <_>
      <maxWeakCount>3</maxWeakCount>
      <stageThreshold>-1.3186835050582886e+00</stageThreshold>
      <weakClassifiers>
        <_>
          <internalNodes>
            0 -1 5 2.7384931221604347e-02</internalNodes>
          <leafValues>
            -9.3059939146041870e-01 3.5384616255760193e-01</leafValues></_>
        <_>
          <internalNodes>
            0 -1 9 -7.1748897433280945e-02</internalNodes>
          <leafValues>
            4.3832132220268250e-01 -8.9201462268829346e-01</leafValues></_>
        <_>
          <internalNodes>
            0 -1 18 5.6851557455956936e-03</internalNodes>
          <leafValues>
            -8.2640540599822998e-01 6.5781599283218384e-01</leafValues></_></weakClassifiers></_>
    <!-- stage 6 -->
    <_>
      <maxWeakCount>3</maxWeakCount>
      <stageThreshold>-1.2276606559753418e+00</stageThreshold>
      <weakClassifiers>
        <_>
          <internalNodes>
            0 -1 1 1.7403448000550270e-02</internalNodes>
          <leafValues>
            -8.9156627655029297e-01 4.7999998927116394e-01</leafValues></_>
        <_>
          <internalNodes>
            0 -1 28 7.2994217276573181e-02</internalNodes>
          <leafValues>
            -7.8352224826812744e-01 7.1632802486419678e-01</leafValues></_>
        <_>
          <internalNodes>
            0 -1 2 1.0436985641717911e-02</internalNodes>
          <leafValues>
            -9.5993477106094360e-01 4.4742786884307861e-01</leafValues></_></weakClassifiers></_>
    <!-- stage 7 -->
    <_>
      <maxWeakCount>2</maxWeakCount>
      <stageThreshold>-7.5661903619766235e-01</stageThreshold>
      <weakClassifiers>
        <_>
          <internalNodes>
            0 -1 7 -1.3747900724411011e-01</internalNodes>
          <leafValues>
            6.0869562625885010e-01 -8.9285713434219360e-01</leafValues></_>
        <_>
          <internalNodes>
            0 -1 3 5.1873784512281418e-02</internalNodes>
          <leafValues>
            -1. 1.3623811304569244e-01</leafValues></_></weakClassifiers></_>
    <!-- stage 8 -->
    <_>
      <maxWeakCount>3</maxWeakCount>
      <stageThreshold>-9.5535123348236084e-01</stageThreshold>
      <weakClassifiers>
        <_>
          <internalNodes>
            0 -1 6 -1.8262605369091034e-01</internalNodes>
          <leafValues>
            1. -8.8472622632980347e-01</leafValues></_>
        <_>
          <internalNodes>
            0 -1 13 -1.7316225171089172e-01</internalNodes>
          <leafValues>
            9.1277158260345459e-01 -6.8304175138473511e-01</leafValues></_>
        <_>
          <internalNodes>
            0 -1 0 8.0295221414417028e-04</internalNodes>
          <leafValues>
            -7.2994065284729004e-01 6.1241674423217773e-01</leafValues></_></weakClassifiers></_>
    <!-- stage 9 -->
    <_>
      <maxWeakCount>3</maxWeakCount>
      <stageThreshold>-1.3131725788116455e+00</stageThreshold>
      <weakClassifiers>
        <_>
          <internalNodes>
            0 -1 23 -5.7827837765216827e-02</internalNodes>
          <leafValues>
            1. -8.7392550706863403e-01</leafValues></_>
        <_>
          <internalNodes>
            0 -1 24 -7.9959547147154808e-03</internalNodes>
          <leafValues>
            4.7232946753501892e-01 -8.4041535854339600e-01</leafValues></_>
        <_>
          <internalNodes>
            0 -1 17 1.9235042855143547e-03</internalNodes>
          <leafValues>
            -9.9203318357467651e-01 4.0116822719573975e-01</leafValues></_></weakClassifiers></_>
    <!-- stage 10 -->
    <_>
      <maxWeakCount>3</maxWeakCount>
      <stageThreshold>-8.5710215568542480e-01</stageThreshold>
      <weakClassifiers>
        <_>
          <internalNodes>
            0 -1 25 -2.8434479609131813e-03</internalNodes>
          <leafValues>
            1. -9.2920351028442383e-01</leafValues></_>
        <_>
          <internalNodes>
            0 -1 21 8.1534430384635925e-02</internalNodes>
          <leafValues>
            -8.3456021547317505e-01 1.</leafValues></_>
        <_>
          <internalNodes>
            0 -1 27 -4.5738305896520615e-02</internalNodes>
          <leafValues>
            9.0666162967681885e-01 -7.6725357770919800e-01</leafValues></_></weakClassifiers></_></stages>
  <features>
    <_>
      <rects>
        <_>
          0 7 2 9 -1.</_>
        <_>
          1 7 1 9 2.</_></rects>
      <tilted>0</tilted></_>
    <_>
      <rects>
        <_>
          0 20 15 1 -1.</_>
        <_>
          5 20 5 1 3.</_></rects>
      <tilted>0</tilted></_>
    <_>
      <rects>
        <_>
          0 20 15 2 -1.</_>
        <_>
          5 20 5 2 3.</_></rects>
      <tilted>0</tilted></_>
    <_>
      <rects>
        <_>
          2 9 15 14 -1.</_>
        <_>
          2 16 15 7 2.</_></rects>
      <tilted>0</tilted></_>
    <_>
      <rects>
        <_>
          2 17 10 6 -1.</_>
        <_>
          2 17 5 3 2.</_>
        <_>
          7 20 5 3 2.</_></rects>
      <tilted>0</tilted></_>
    <_>
      <rects>
        <_>
          2 18 20 6 -1.</_>
        <_>
          2 20 20 2 3.</_></rects>
      <tilted>0</tilted></_>
    <_>
      <rects>
        <_>
          3 4 10 16 -1.</_>
        <_>
          3 4 5 8 2.</_>
        <_>
          8 12 5 8 2.</_></rects>
      <tilted>0</tilted></_>
    <_>
      <rects>
        <_>
          3 5 10 12 -1.</_>
        <_>
          3 5 5 6 2.</_>
        <_>
          8 11 5 6 2.</_></rects>
      <tilted>0</tilted></_>
    <_>
      <rects>
        <_>
          3 7 7 9 -1.</_>
        <_>
          3 10 7 3 3.</_></rects>
      <tilted>0</tilted></_>
    <_>
      <rects>
        <_>
          4 0 17 9 -1.</_>
        <_>
          4 3 17 3 3.</_></rects>
      <tilted>0</tilted></_>
    <_>
      <rects>
        <_>
          4 3 15 10 -1.</_>
        <_>
          9 3 5 10 3.</_></rects>
      <tilted>0</tilted></_>
    <_>
      <rects>
        <_>
          4 5 10 16 -1.</_>
        <_>
          4 5 5 8 2.</_>
        <_>
          9 13 5 8 2.</_></rects>
      <tilted>0</tilted></_>
    <_>
      <rects>
        <_>
          4 6 8 12 -1.</_>
        <_>
          4 6 4 6 2.</_>
        <_>
          8 12 4 6 2.</_></rects>
      <tilted>0</tilted></_>
    <_>
      <rects>
        <_>
          4 6 10 14 -1.</_>
        <_>
          4 6 5 7 2.</_>
        <_>
          9 13 5 7 2.</_></rects>
      <tilted>0</tilted></_>
    <_>
      <rects>
        <_>
          5 4 2 16 -1.</_>
        <_>
          5 12 2 8 2.</_></rects>
      <tilted>0</tilted></_>
    <_>
      <rects>
        <_>
          5 9 9 6 -1.</_>
        <_>
          5 11 9 2 3.</_></rects>
      <tilted>0</tilted></_>
    <_>
      <rects>
        <_>
          9 7 12 10 -1.</_>
        <_>
          9 7 6 5 2.</_>
        <_>
          15 12 6 5 2.</_></rects>
      <tilted>0</tilted></_>
    <_>
      <rects>
        <_>
          10 1 3 11 -1.</_>
        <_>
          11 1 1 11 3.</_></rects>
      <tilted>0</tilted></_>
    <_>
      <rects>
        <_>
          10 17 6 3 -1.</_>
        <_>
          12 17 2 3 3.</_></rects>
      <tilted>0</tilted></_>
    <_>
      <rects>
        <_>
          11 2 1 8 -1.</_>
        <_>
          11 6 1 4 2.</_></rects>
      <tilted>0</tilted></_>
    <_>
      <rects>
        <_>
          11 7 10 10 -1.</_>
        <_>
          11 7 5 5 2.</_>
        <_>
          16 12 5 5 2.</_></rects>
      <tilted>0</tilted></_>
    <_>
      <rects>
        <_>
          11 8 10 8 -1.</_>
        <_>
          11 8 5 4 2.</_>
        <_>
          16 12 5 4 2.</_></rects>
      <tilted>0</tilted></_>
    <_>
      <rects>
        <_>
          12 5 9 14 -1.</_>
        <_>
          15 5 3 14 3.</_></rects>
      <tilted>0</tilted></_>
    <_>
      <rects>
        <_>
          13 5 6 18 -1.</_>
        <_>
          15 5 2 18 3.</_></rects>
      <tilted>0</tilted></_>
    <_>
      <rects>
        <_>
          13 13 3 6 -1.</_>
        <_>
          13 15 3 2 3.</_></rects>
      <tilted>0</tilted></_>
    <_>
      <rects>
        <_>
          13 13 4 4 -1.</_>
        <_>
          13 15 4 2 2.</_></rects>
      <tilted>0</tilted></_>
    <_>
      <rects>
        <_>
          16 5 6 12 -1.</_>
        <_>
          16 11 6 6 2.</_></rects>
      <tilted>0</tilted></_>
    <_>
      <rects>
        <_>
          17 0 6 24 -1.</_>
        <_>
          17 0 3 12 2.</_>
        <_>
          20 12 3 12 2.</_></rects>
      <tilted>0</tilted></_>
    <_>
      <rects>
        <_>
          18 6 3 14 -1.</_>
        <_>
          18 13 3 7 2.</_></rects>
      <tilted>0</tilted></_></features></cascade>
</opencv_storage>
