<?xml version="1.0"?>
<opencv_storage>
<cascade>
  <stageType>BOOST</stageType>
  <featureType>HAAR</featureType>
  <height>32</height>
  <width>32</width>
  <stageParams>
    <boostType>GAB</boostType>
    <minHitRate>9.9500000476837158e-01</minHitRate>
    <maxFalseAlarm>5.0000000000000000e-01</maxFalseAlarm>
    <weightTrimRate>9.4999998807907104e-01</weightTrimRate>
    <maxDepth>1</maxDepth>
    <maxWeakCount>100</maxWeakCount></stageParams>
  <featureParams>
    <maxCatCount>0</maxCatCount>
    <featSize>1</featSize>
    <mode>BASIC</mode></featureParams>
  <stageNum>14</stageNum>
  <stages>
    <!-- stage 0 -->
    <_>
      <maxWeakCount>2</maxWeakCount>
      <stageThreshold>-4.1919270157814026e-01</stageThreshold>
      <weakClassifiers>
        <_>
          <internalNodes>
            0 -1 10 -1.1871866881847382e-01</internalNodes>
          <leafValues>
            4.3333333730697632e-01 -9.7153025865554810e-01</leafValues></_>
        <_>
          <internalNodes>
            0 -1 8 -1.1140798032283783e-01</internalNodes>
          <leafValues>
            9.4748520851135254e-01 -8.5252600908279419e-01</leafValues></_></weakClassifiers></_>
    <!-- stage 1 -->
    <_>
      <maxWeakCount>2</maxWeakCount>
      <stageThreshold>-1.3404949009418488e-01</stageThreshold>
      <weakClassifiers>
        <_>
          <internalNodes>
            0 -1 31 8.5403490811586380e-03</internalNodes>
          <leafValues>
            -8.9473682641983032e-01 6.7567569017410278e-01</leafValues></_>
        <_>
          <internalNodes>
            0 -1 29 3.0794769525527954e-02</internalNodes>
          <leafValues>
            -8.0972516536712646e-01 8.3784568309783936e-01</leafValues></_></weakClassifiers></_>
    <!-- stage 2 -->
    <_>
      <maxWeakCount>3</maxWeakCount>
      <stageThreshold>-1.7242313623428345e+00</stageThreshold>
      <weakClassifiers>
        <_>
          <internalNodes>
            0 -1 12 2.7492729714140296e-04</internalNodes>
          <leafValues>
            -9.7647058963775635e-01 2.3255813866853714e-02</leafValues></_>
        <_>
          <internalNodes>
            0 -1 17 1.7520386725664139e-02</internalNodes>
          <leafValues>
            -8.9373844861984253e-01 3.5902720689773560e-01</leafValues></_>
        <_>
          <internalNodes>
            0 -1 3 -3.0582458712160587e-03</internalNodes>
          <leafValues>
            5.2744233608245850e-01 -8.5374867916107178e-01</leafValues></_></weakClassifiers></_>
    <!-- stage 3 -->
    <_>
      <maxWeakCount>3</maxWeakCount>
      <stageThreshold>-1.1756678819656372e+00</stageThreshold>
      <weakClassifiers>
        <_>
          <internalNodes>
            0 -1 27 -2.6390947401523590e-02</internalNodes>
          <leafValues>
            4.2857143282890320e-01 -8.5620915889739990e-01</leafValues></_>
        <_>
          <internalNodes>
            0 -1 14 3.2202683389186859e-02</internalNodes>
          <leafValues>
            -8.0496823787689209e-01 4.9551373720169067e-01</leafValues></_>
        <_>
          <internalNodes>
            0 -1 7 -2.0612053573131561e-02</internalNodes>
          <leafValues>
            4.8550951480865479e-01 -1.</leafValues></_></weakClassifiers></_>
    <!-- stage 4 -->
    <_>
      <maxWeakCount>2</maxWeakCount>
      <stageThreshold>-6.7008888721466064e-01</stageThreshold>
      <weakClassifiers>
        <_>
          <internalNodes>
            0 -1 9 9.2271715402603149e-04</internalNodes>
          <leafValues>
            -8.6046510934829712e-01 3.0000001192092896e-01</leafValues></_>
        <_>
          <internalNodes>
            0 -1 18 2.1550087258219719e-02</internalNodes>
          <leafValues>
            -9.7008889913558960e-01 2.5836139917373657e-01</leafValues></_></weakClassifiers></_>
    <!-- stage 5 -->
    <_>
      <maxWeakCount>2</maxWeakCount>
      <stageThreshold>-6.3601666688919067e-01</stageThreshold>
      <weakClassifiers>
        <_>
          <internalNodes>
            0 -1 0 -4.3735153973102570e-02</internalNodes>
          <leafValues>
            4.1176471114158630e-01 -8.5016286373138428e-01</leafValues></_>
        <_>
          <internalNodes>
            0 -1 28 3.4053130075335503e-03</internalNodes>
          <leafValues>
            -1. 2.1414619684219360e-01</leafValues></_></weakClassifiers></_>
    <!-- stage 6 -->
    <_>
      <maxWeakCount>3</maxWeakCount>
      <stageThreshold>-1.0140489339828491e+00</stageThreshold>
      <weakClassifiers>
        <_>
          <internalNodes>
            0 -1 2 -1.4552627503871918e-01</internalNodes>
          <leafValues>
            5.1724135875701904e-01 -8.3974361419677734e-01</leafValues></_>
        <_>
          <internalNodes>
            0 -1 4 -4.1248962283134460e-02</internalNodes>
          <leafValues>
            6.6203677654266357e-01 -6.5476393699645996e-01</leafValues></_>
        <_>
          <internalNodes>
            0 -1 21 -9.9375821650028229e-02</internalNodes>
          <leafValues>
            4.8045858740806580e-01 -8.1768190860748291e-01</leafValues></_></weakClassifiers></_>
    <!-- stage 7 -->
    <_>
      <maxWeakCount>3</maxWeakCount>
      <stageThreshold>-1.3103387355804443e+00</stageThreshold>
      <weakClassifiers>
        <_>
          <internalNodes>
            0 -1 23 -6.5709957852959633e-03</internalNodes>
          <leafValues>
            2.0000000298023224e-01 -8.8316148519515991e-01</leafValues></_>
        <_>
          <internalNodes>
            0 -1 30 -2.9671639204025269e-03</internalNodes>
          <leafValues>
            5.2344083786010742e-01 -7.2642242908477783e-01</leafValues></_>
        <_>
          <internalNodes>
            0 -1 33 9.4427432486554608e-06</internalNodes>
          <leafValues>
            -9.5061814785003662e-01 4.1537317633628845e-01</leafValues></_></weakClassifiers></_>
    <!-- stage 8 -->
    <_>
      <maxWeakCount>3</maxWeakCount>
      <stageThreshold>-1.2035356760025024e+00</stageThreshold>
      <weakClassifiers>
        <_>
          <internalNodes>
            0 -1 32 -3.6500856280326843e-02</internalNodes>
          <leafValues>
            8.0952382087707520e-01 -8.2499998807907104e-01</leafValues></_>
        <_>
          <internalNodes>
            0 -1 6 3.0941518489271402e-03</internalNodes>
          <leafValues>
            -7.8575503826141357e-01 5.0591742992401123e-01</leafValues></_>
        <_>
          <internalNodes>
            0 -1 25 6.2867584638297558e-03</internalNodes>
          <leafValues>
            -8.8445311784744263e-01 4.5978245139122009e-01</leafValues></_></weakClassifiers></_>
    <!-- stage 9 -->
    <_>
      <maxWeakCount>4</maxWeakCount>
      <stageThreshold>-1.4154542684555054e+00</stageThreshold>
      <weakClassifiers>
        <_>
          <internalNodes>
            0 -1 22 5.4086841642856598e-02</internalNodes>
          <leafValues>
            -8.0307692289352417e-01 8.7500000000000000e-01</leafValues></_>
        <_>
          <internalNodes>
            0 -1 13 -1.3082683086395264e-01</internalNodes>
          <leafValues>
            6.0200750827789307e-01 -6.6489076614379883e-01</leafValues></_>
        <_>
          <internalNodes>
            0 -1 24 -5.3132753819227219e-02</internalNodes>
          <leafValues>
            8.8125467300415039e-01 -4.4646382331848145e-01</leafValues></_>
        <_>
          <internalNodes>
            0 -1 34 -5.8424263261258602e-04</internalNodes>
          <leafValues>
            -9.1266709566116333e-01 4.9897721409797668e-01</leafValues></_></weakClassifiers></_>
    <!-- stage 10 -->
    <_>
      <maxWeakCount>3</maxWeakCount>
      <stageThreshold>-1.1224318742752075e+00</stageThreshold>
      <weakClassifiers>
        <_>
          <internalNodes>
            0 -1 1 -3.0572172254323959e-02</internalNodes>
          <leafValues>
            3.4999999403953552e-01 -8.6710965633392334e-01</leafValues></_>
        <_>
          <internalNodes>
            0 -1 5 2.7689647674560547e-01</internalNodes>
          <leafValues>
            -6.4874225854873657e-01 8.7581759691238403e-01</leafValues></_>
        <_>
          <internalNodes>
            0 -1 19 -2.3225942277349532e-04</internalNodes>
          <leafValues>
            -9.5766711235046387e-01 3.9342004060745239e-01</leafValues></_></weakClassifiers></_>
    <!-- stage 11 -->
    <_>
      <maxWeakCount>3</maxWeakCount>
      <stageThreshold>-1.0780799388885498e+00</stageThreshold>
      <weakClassifiers>
        <_>
          <internalNodes>
            0 -1 11 -2.6575115323066711e-01</internalNodes>
          <leafValues>
            6.5517240762710571e-01 -8.5256409645080566e-01</leafValues></_>
        <_>
          <internalNodes>
            0 -1 16 -7.6099433936178684e-03</internalNodes>
          <leafValues>
            7.7641719579696655e-01 -6.6423106193542480e-01</leafValues></_>
        <_>
          <internalNodes>
            0 -1 26 -4.3462268076837063e-03</internalNodes>
          <leafValues>
            -9.4916617870330811e-01 4.3871527910232544e-01</leafValues></_></weakClassifiers></_>
    <!-- stage 12 -->
    <_>
      <maxWeakCount>2</maxWeakCount>
      <stageThreshold>-6.6011440753936768e-01</stageThreshold>
      <weakClassifiers>
        <_>
          <internalNodes>
            0 -1 15 -2.2281470894813538e-01</internalNodes>
          <leafValues>
            7.6923078298568726e-01 -8.4761905670166016e-01</leafValues></_>
        <_>
          <internalNodes>
            0 -1 36 -8.0671784235164523e-04</internalNodes>
          <leafValues>
            -9.7871762514114380e-01 1.8750466406345367e-01</leafValues></_></weakClassifiers></_>
    <!-- stage 13 -->
    <_>
      <maxWeakCount>2</maxWeakCount>
      <stageThreshold>-6.0575759410858154e-01</stageThreshold>
      <weakClassifiers>
        <_>
          <internalNodes>
            0 -1 20 -1.0495148599147797e-02</internalNodes>
          <leafValues>
            7.1428573131561279e-01 -8.1875002384185791e-01</leafValues></_>
        <_>
          <internalNodes>
            0 -1 35 5.5411271750926971e-04</internalNodes>
          <leafValues>
            2.1299241483211517e-01 -9.8873019218444824e-01</leafValues></_></weakClassifiers></_></stages>
  <features>
    <_>
      <rects>
        <_>
          0 8 8 23 -1.</_>
        <_>
          4 8 4 23 2.</_></rects>
      <tilted>0</tilted></_>
    <_>
      <rects>
        <_>
          0 9 14 9 -1.</_>
        <_>
          7 9 7 9 2.</_></rects>
      <tilted>0</tilted></_>
    <_>
      <rects>
        <_>
          0 11 30 10 -1.</_>
        <_>
          10 11 10 10 3.</_></rects>
      <tilted>0</tilted></_>
    <_>
      <rects>
        <_>
          0 28 10 4 -1.</_>
        <_>
          5 28 5 4 2.</_></rects>
      <tilted>0</tilted></_>
    <_>
      <rects>
        <_>
          1 10 10 22 -1.</_>
        <_>
          1 10 5 11 2.</_>
        <_>
          6 21 5 11 2.</_></rects>
      <tilted>0</tilted></_>
    <_>
      <rects>
        <_>
          2 1 30 22 -1.</_>
        <_>
          12 1 10 22 3.</_></rects>
      <tilted>0</tilted></_>
    <_>
      <rects>
        <_>
          5 7 20 2 -1.</_>
        <_>
          5 8 20 1 2.</_></rects>
      <tilted>0</tilted></_>
    <_>
      <rects>
        <_>
          5 17 7 12 -1.</_>
        <_>
          5 23 7 6 2.</_></rects>
      <tilted>0</tilted></_>
    <_>
      <rects>
        <_>
          6 2 13 18 -1.</_>
        <_>
          6 11 13 9 2.</_></rects>
      <tilted>0</tilted></_>
    <_>
      <rects>
        <_>
          6 6 4 2 -1.</_>
        <_>
          6 6 2 1 2.</_>
        <_>
          8 7 2 1 2.</_></rects>
      <tilted>0</tilted></_>
    <_>
      <rects>
        <_>
          6 18 23 14 -1.</_>
        <_>
          6 25 23 7 2.</_></rects>
      <tilted>0</tilted></_>
    <_>
      <rects>
        <_>
          7 1 20 20 -1.</_>
        <_>
          7 11 20 10 2.</_></rects>
      <tilted>0</tilted></_>
    <_>
      <rects>
        <_>
          7 15 19 8 -1.</_>
        <_>
          7 19 19 4 2.</_></rects>
      <tilted>0</tilted></_>
    <_>
      <rects>
        <_>
          7 20 17 12 -1.</_>
        <_>
          7 26 17 6 2.</_></rects>
      <tilted>0</tilted></_>
    <_>
      <rects>
        <_>
          9 5 21 9 -1.</_>
        <_>
          9 8 21 3 3.</_></rects>
      <tilted>0</tilted></_>
    <_>
      <rects>
        <_>
          10 1 16 20 -1.</_>
        <_>
          10 11 16 10 2.</_></rects>
      <tilted>0</tilted></_>
    <_>
      <rects>
        <_>
          10 14 4 9 -1.</_>
        <_>
          10 17 4 3 3.</_></rects>
      <tilted>0</tilted></_>
    <_>
      <rects>
        <_>
          12 2 4 15 -1.</_>
        <_>
          12 7 4 5 3.</_></rects>
      <tilted>0</tilted></_>
    <_>
      <rects>
        <_>
          13 3 9 12 -1.</_>
        <_>
          13 7 9 4 3.</_></rects>
      <tilted>0</tilted></_>
    <_>
      <rects>
        <_>
          13 26 14 6 -1.</_>
        <_>
          13 26 7 3 2.</_>
        <_>
          20 29 7 3 2.</_></rects>
      <tilted>0</tilted></_>
    <_>
      <rects>
        <_>
          17 3 10 4 -1.</_>
        <_>
          17 5 10 2 2.</_></rects>
      <tilted>0</tilted></_>
    <_>
      <rects>
        <_>
          18 2 8 30 -1.</_>
        <_>
          18 17 8 15 2.</_></rects>
      <tilted>0</tilted></_>
    <_>
      <rects>
        <_>
          19 16 12 5 -1.</_>
        <_>
          25 16 6 5 2.</_></rects>
      <tilted>0</tilted></_>
    <_>
      <rects>
        <_>
          19 18 12 4 -1.</_>
        <_>
          19 18 6 2 2.</_>
        <_>
          25 20 6 2 2.</_></rects>
      <tilted>0</tilted></_>
    <_>
      <rects>
        <_>
          20 0 4 20 -1.</_>
        <_>
          20 10 4 10 2.</_></rects>
      <tilted>0</tilted></_>
    <_>
      <rects>
        <_>
          21 16 3 12 -1.</_>
        <_>
          21 20 3 4 3.</_></rects>
      <tilted>0</tilted></_>
    <_>
      <rects>
        <_>
          22 10 2 14 -1.</_>
        <_>
          22 17 2 7 2.</_></rects>
      <tilted>0</tilted></_>
    <_>
      <rects>
        <_>
          22 13 8 16 -1.</_>
        <_>
          22 13 4 8 2.</_>
        <_>
          26 21 4 8 2.</_></rects>
      <tilted>0</tilted></_>
    <_>
      <rects>
        <_>
          22 30 10 2 -1.</_>
        <_>
          27 30 5 2 2.</_></rects>
      <tilted>0</tilted></_>
    <_>
      <rects>
        <_>
          23 8 8 24 -1.</_>
        <_>
          23 8 4 12 2.</_>
        <_>
          27 20 4 12 2.</_></rects>
      <tilted>0</tilted></_>
    <_>
      <rects>
        <_>
          25 9 3 6 -1.</_>
        <_>
          26 9 1 6 3.</_></rects>
      <tilted>0</tilted></_>
    <_>
      <rects>
        <_>
          25 11 6 6 -1.</_>
        <_>
          27 11 2 6 3.</_></rects>
      <tilted>0</tilted></_>
    <_>
      <rects>
        <_>
          27 12 2 18 -1.</_>
        <_>
          27 21 2 9 2.</_></rects>
      <tilted>0</tilted></_>
    <_>
      <rects>
        <_>
          29 28 2 1 -1.</_>
        <_>
          30 28 1 1 2.</_></rects>
      <tilted>0</tilted></_>
    <_>
      <rects>
        <_>
          29 28 3 4 -1.</_>
        <_>
          29 30 3 2 2.</_></rects>
      <tilted>0</tilted></_>
    <_>
      <rects>
        <_>
          31 19 1 12 -1.</_>
        <_>
          31 25 1 6 2.</_></rects>
      <tilted>0</tilted></_>
    <_>
      <rects>
        <_>
          31 23 1 9 -1.</_>
        <_>
          31 26 1 3 3.</_></rects>
      <tilted>0</tilted></_></features></cascade>
</opencv_storage>
