<?xml version="1.0"?>
<opencv_storage>
<cascade>
  <stageType>BOOST</stageType>
  <featureType>HAAR</featureType>
  <height>48</height>
  <width>48</width>
  <stageParams>
    <boostType>GAB</boostType>
    <minHitRate>9.9500000476837158e-01</minHitRate>
    <maxFalseAlarm>5.0000000000000000e-01</maxFalseAlarm>
    <weightTrimRate>9.4999998807907104e-01</weightTrimRate>
    <maxDepth>1</maxDepth>
    <maxWeakCount>100</maxWeakCount></stageParams>
  <featureParams>
    <maxCatCount>0</maxCatCount>
    <featSize>1</featSize>
    <mode>BASIC</mode></featureParams>
  <stageNum>9</stageNum>
  <stages>
    <!-- stage 0 -->
    <_>
      <maxWeakCount>1</maxWeakCount>
      <stageThreshold>9.2982459068298340e-01</stageThreshold>
      <weakClassifiers>
        <_>
          <internalNodes>
            0 -1 0 2.0279094576835632e-01</internalNodes>
          <leafValues>
            -1. 9.2982459068298340e-01</leafValues></_></weakClassifiers></_>
    <!-- stage 1 -->
    <_>
      <maxWeakCount>2</maxWeakCount>
      <stageThreshold>-1.1082388460636139e-01</stageThreshold>
      <weakClassifiers>
        <_>
          <internalNodes>
            0 -1 22 2.6764539070427418e-03</internalNodes>
          <leafValues>
            -9.2833876609802246e-01 8.7234044075012207e-01</leafValues></_>
        <_>
          <internalNodes>
            0 -1 4 -8.4727127104997635e-03</internalNodes>
          <leafValues>
            8.1751489639282227e-01 -9.5232439041137695e-01</leafValues></_></weakClassifiers></_>
    <!-- stage 2 -->
    <_>
      <maxWeakCount>3</maxWeakCount>
      <stageThreshold>-1.0085910558700562e+00</stageThreshold>
      <weakClassifiers>
        <_>
          <internalNodes>
            0 -1 10 -5.4107126779854298e-03</internalNodes>
          <leafValues>
            1. -8.8643532991409302e-01</leafValues></_>
        <_>
          <internalNodes>
            0 -1 12 -1.1798561317846179e-03</internalNodes>
          <leafValues>
            9.5111203193664551e-01 -8.7771135568618774e-01</leafValues></_>
        <_>
          <internalNodes>
            0 -1 16 1.0695857927203178e-02</internalNodes>
          <leafValues>
            -9.2869424819946289e-01 7.5555557012557983e-01</leafValues></_></weakClassifiers></_>
    <!-- stage 3 -->
    <_>
      <maxWeakCount>3</maxWeakCount>
      <stageThreshold>-1.0357551574707031e+00</stageThreshold>
      <weakClassifiers>
        <_>
          <internalNodes>
            0 -1 13 5.0049768760800362e-03</internalNodes>
          <leafValues>
            -9.2131149768829346e-01 7.5510203838348389e-01</leafValues></_>
        <_>
          <internalNodes>
            0 -1 17 -7.2200293652713299e-03</internalNodes>
          <leafValues>
            7.5219577550888062e-01 -9.1690546274185181e-01</leafValues></_>
        <_>
          <internalNodes>
            0 -1 2 2.2878027521073818e-03</internalNodes>
          <leafValues>
            -8.6663943529129028e-01 8.9047563076019287e-01</leafValues></_></weakClassifiers></_>
    <!-- stage 4 -->
    <_>
      <maxWeakCount>3</maxWeakCount>
      <stageThreshold>-1.0734678506851196e+00</stageThreshold>
      <weakClassifiers>
        <_>
          <internalNodes>
            0 -1 21 -4.2402416467666626e-02</internalNodes>
          <leafValues>
            4.7692307829856873e-01 -9.5155709981918335e-01</leafValues></_>
        <_>
          <internalNodes>
            0 -1 3 1.5459043905138969e-02</internalNodes>
          <leafValues>
            -9.0578573942184448e-01 6.5868926048278809e-01</leafValues></_>
        <_>
          <internalNodes>
            0 -1 7 -1.0690590133890510e-03</internalNodes>
          <leafValues>
            7.8387498855590820e-01 -9.0449720621109009e-01</leafValues></_></weakClassifiers></_>
    <!-- stage 5 -->
    <_>
      <maxWeakCount>3</maxWeakCount>
      <stageThreshold>-8.4379982948303223e-01</stageThreshold>
      <weakClassifiers>
        <_>
          <internalNodes>
            0 -1 19 -1.8552929162979126e-02</internalNodes>
          <leafValues>
            1. -8.6874997615814209e-01</leafValues></_>
        <_>
          <internalNodes>
            0 -1 5 -1.6663607675582170e-03</internalNodes>
          <leafValues>
            8.3780860900878906e-01 -8.4307491779327393e-01</leafValues></_>
        <_>
          <internalNodes>
            0 -1 9 8.9294444769620895e-03</internalNodes>
          <leafValues>
            -7.7240765094757080e-01 8.6802506446838379e-01</leafValues></_></weakClassifiers></_>
    <!-- stage 6 -->
    <_>
      <maxWeakCount>3</maxWeakCount>
      <stageThreshold>-1.1383769512176514e+00</stageThreshold>
      <weakClassifiers>
        <_>
          <internalNodes>
            0 -1 1 -5.7743545621633530e-03</internalNodes>
          <leafValues>
            7.2727274894714355e-01 -8.9032256603240967e-01</leafValues></_>
        <_>
          <internalNodes>
            0 -1 20 -2.4214875884354115e-03</internalNodes>
          <leafValues>
            7.0338100194931030e-01 -8.1587082147598267e-01</leafValues></_>
        <_>
          <internalNodes>
            0 -1 18 -3.8462397642433643e-03</internalNodes>
          <leafValues>
            5.6781643629074097e-01 -9.8349398374557495e-01</leafValues></_></weakClassifiers></_>
    <!-- stage 7 -->
    <_>
      <maxWeakCount>3</maxWeakCount>
      <stageThreshold>-1.1763736009597778e+00</stageThreshold>
      <weakClassifiers>
        <_>
          <internalNodes>
            0 -1 15 -5.1369201391935349e-03</internalNodes>
          <leafValues>
            1. -8.8643532991409302e-01</leafValues></_>
        <_>
          <internalNodes>
            0 -1 14 6.1268410645425320e-03</internalNodes>
          <leafValues>
            -9.3597334623336792e-01 5.3063046932220459e-01</leafValues></_>
        <_>
          <internalNodes>
            0 -1 6 1.0768590494990349e-02</internalNodes>
          <leafValues>
            -8.2056874036788940e-01 6.8115097284317017e-01</leafValues></_></weakClassifiers></_>
    <!-- stage 8 -->
    <_>
      <maxWeakCount>2</maxWeakCount>
      <stageThreshold>6.9396264851093292e-02</stageThreshold>
      <weakClassifiers>
        <_>
          <internalNodes>
            0 -1 8 5.4853637702763081e-03</internalNodes>
          <leafValues>
            -8.8050311803817749e-01 1.</leafValues></_>
        <_>
          <internalNodes>
            0 -1 11 -3.8273923564702272e-03</internalNodes>
          <leafValues>
            9.4989943504333496e-01 -8.4003144502639771e-01</leafValues></_></weakClassifiers></_></stages>
  <features>
    <_>
      <rects>
        <_>
          1 6 32 39 -1.</_>
        <_>
          1 19 32 13 3.</_></rects>
      <tilted>0</tilted></_>
    <_>
      <rects>
        <_>
          2 9 10 6 -1.</_>
        <_>
          2 9 5 3 2.</_>
        <_>
          7 12 5 3 2.</_></rects>
      <tilted>0</tilted></_>
    <_>
      <rects>
        <_>
          2 13 8 6 -1.</_>
        <_>
          2 13 4 3 2.</_>
        <_>
          6 16 4 3 2.</_></rects>
      <tilted>0</tilted></_>
    <_>
      <rects>
        <_>
          3 15 12 25 -1.</_>
        <_>
          7 15 4 25 3.</_></rects>
      <tilted>0</tilted></_>
    <_>
      <rects>
        <_>
          4 3 22 8 -1.</_>
        <_>
          4 3 11 4 2.</_>
        <_>
          15 7 11 4 2.</_></rects>
      <tilted>0</tilted></_>
    <_>
      <rects>
        <_>
          6 36 1 12 -1.</_>
        <_>
          6 42 1 6 2.</_></rects>
      <tilted>0</tilted></_>
    <_>
      <rects>
        <_>
          8 16 8 32 -1.</_>
        <_>
          8 16 4 16 2.</_>
        <_>
          12 32 4 16 2.</_></rects>
      <tilted>0</tilted></_>
    <_>
      <rects>
        <_>
          9 17 22 6 -1.</_>
        <_>
          9 20 22 3 2.</_></rects>
      <tilted>0</tilted></_>
    <_>
      <rects>
        <_>
          14 22 6 5 -1.</_>
        <_>
          16 22 2 5 3.</_></rects>
      <tilted>0</tilted></_>
    <_>
      <rects>
        <_>
          15 0 6 12 -1.</_>
        <_>
          15 4 6 4 3.</_></rects>
      <tilted>0</tilted></_>
    <_>
      <rects>
        <_>
          17 22 6 6 -1.</_>
        <_>
          19 22 2 6 3.</_></rects>
      <tilted>0</tilted></_>
    <_>
      <rects>
        <_>
          18 20 9 3 -1.</_>
        <_>
          21 20 3 3 3.</_></rects>
      <tilted>0</tilted></_>
    <_>
      <rects>
        <_>
          26 20 3 8 -1.</_>
        <_>
          27 20 1 8 3.</_></rects>
      <tilted>0</tilted></_>
    <_>
      <rects>
        <_>
          29 5 12 6 -1.</_>
        <_>
          29 5 6 3 2.</_>
        <_>
          35 8 6 3 2.</_></rects>
      <tilted>0</tilted></_>
    <_>
      <rects>
        <_>
          30 19 12 11 -1.</_>
        <_>
          34 19 4 11 3.</_></rects>
      <tilted>0</tilted></_>
    <_>
      <rects>
        <_>
          31 43 15 1 -1.</_>
        <_>
          36 43 5 1 3.</_></rects>
      <tilted>0</tilted></_>
    <_>
      <rects>
        <_>
          32 2 14 18 -1.</_>
        <_>
          32 2 7 9 2.</_>
        <_>
          39 11 7 9 2.</_></rects>
      <tilted>0</tilted></_>
    <_>
      <rects>
        <_>
          32 8 6 40 -1.</_>
        <_>
          32 8 3 20 2.</_>
        <_>
          35 28 3 20 2.</_></rects>
      <tilted>0</tilted></_>
    <_>
      <rects>
        <_>
          32 23 10 8 -1.</_>
        <_>
          32 27 10 4 2.</_></rects>
      <tilted>0</tilted></_>
    <_>
      <rects>
        <_>
          33 39 15 5 -1.</_>
        <_>
          38 39 5 5 3.</_></rects>
      <tilted>0</tilted></_>
    <_>
      <rects>
        <_>
          34 41 6 4 -1.</_>
        <_>
          34 43 6 2 2.</_></rects>
      <tilted>0</tilted></_>
    <_>
      <rects>
        <_>
          35 16 5 32 -1.</_>
        <_>
          35 32 5 16 2.</_></rects>
      <tilted>0</tilted></_>
    <_>
      <rects>
        <_>
          38 38 8 6 -1.</_>
        <_>
          38 38 4 3 2.</_>
        <_>
          42 41 4 3 2.</_></rects>
      <tilted>0</tilted></_></features></cascade>
</opencv_storage>
